3
21 64
-0.61191297 -1.69754970 -0.41412336 -0.70228815 -0.21664940 0.27217579 0.03430483 -1.52294385 -2.08245134 3.36204529 0.45992127 0.75138938 -0.98790628 -1.19558847 0.33915463 -0.31144851 -0.27360570 -0.06137728 0.57057202 0.36048764 0.97813350
-0.90610379 -0.41937250 -0.26021105 -0.45609862 0.07501854 0.41323742 0.07314757 -0.22620161 0.38456467 -0.69584030 0.72738683 0.40330938 -1.20699978 0.28508386 -0.05544146 0.14993861 -0.14266129 0.08733705 0.29000893 -0.06174520 0.28470322
-1.02732289 3.54640484 0.05244789 -0.15857758 0.00097564 0.22366403 0.16049083 -4.87606382 5.40794849 -2.09379077 -0.31329146 -0.06438068 -0.92405361 4.03008127 0.01259320 0.08533265 -0.02661139 -0.17502186 0.06021897 -0.22623785 0.00378274
-0.28591934 -0.75972384 -0.00453897 0.39906499 0.20921727 0.04135400 0.00863840 -0.36354369 -0.16122082 -0.42511618 0.81794822 0.23324344 0.00877755 1.09991145 0.19140045 0.15011327 0.03416606 -0.00386863 -0.12682876 -0.01746514 -0.18339729
-2.68374228 -0.84372306 0.24243706 0.12843537 -0.08046597 -0.09995595 -0.16543747 -31.19398117 -1.49099886 -2.49056315 2.61139178 0.23629627 -2.24080563 -0.79092497 0.03772593 0.29130918 -0.08437464 0.15647413 0.48660231 0.50606346 1.06723046
-0.37326863 1.09523964 0.20900092 0.40893263 -0.54242462 0.07104033 -0.09214555 -1.01103747 1.39418602 0.99192965 3.16334295 -0.23450541 -0.82229167 1.31721246 0.44425693 0.35151070 0.12289312 -0.15407176 -0.14058480 -0.24183099 -0.42710146
-5.27771616 -0.16194811 -0.50874531 -0.19345948 -0.96439487 -3.86750603 0.03952617 -3.91624117 -0.49252215 -0.06432240 -2.49418640 -0.28322259 1.85902631 -0.22934990 0.27116221 -2.39965510 -0.13725814 -0.60165137 0.64704943 -1.40266407 0.75661427
0.19415596 0.68368506 -1.09526658 0.79335839 -0.76219827 -1.55584180 -0.06355201 0.31989121 1.53155077 0.16393468 0.43660522 -0.38302997 0.37824148 1.01494706 -0.18865527 0.48057890 -0.27869946 0.16883332 0.48981503 0.03497525 0.56378263
0.69584048 2.37257981 0.74094105 0.50777686 0.34823892 0.19027784 0.05754013 0.71410686 1.31877863 -0.52264231 0.78808969 0.27639878 -0.61394674 -2.37346148 -0.12113486 0.01726919 -0.09782580 0.06532321 0.00357888 0.06270176 -0.62646651
0.02825731 -2.64428592 -0.16917960 -3.45062971 -1.08455050 -2.25058246 0.38882598 0.36386651 -1.97758174 -0.38123181 -1.56278586 -1.01152456 -0.14620753 1.74160469 -1.15372169 0.99176419 -0.73036844 0.10888227 0.37061125 -0.88428926 -0.74635363
-39.81263733 0.53032762 -3.50721169 0.77680492 0.04440205 0.74985266 -0.04688679 -4.09859991 0.44268581 0.78080785 -0.73723757 0.05340835 3.72896910 -0.94194281 -0.36958560 -1.14955688 0.14935426 0.12686102 0.50150502 0.60184681 0.87277418
1.44301975 -1.93839729 1.08123267 0.42301613 0.70572966 0.16719519 0.00539913 0.61085731 -1.77628458 1.07231832 -0.60765654 0.64748979 -0.60795122 0.78089797 -0.84403402 -0.08019505 -0.21103969 0.09164150 0.45674098 0.39366636 0.95029032
0.85717463 1.38663375 0.02798791 0.32351965 0.33342203 0.33748400 -0.01630104 -0.67013890 2.98691440 -0.12811604 0.94306642 -0.14651953 1.05783558 2.41094589 -0.03072323 -0.03606962 -0.02886052 0.02845258 0.07294049 0.42808884 0.46201131
0.52280349 -0.71181005 0.07373410 0.52334297 -0.12347712 0.52356517 -0.15019038 -0.66653973 0.16402003 1.00401282 -0.36886078 -0.13124633 -1.13732040 1.08372319 -0.43339628 -1.27379835 -0.18688245 0.30109820 -0.11100524 0.37375608 0.25777516
1.10978842 0.39990994 -3.54667687 -5.29028130 0.45480704 0.26408339 -0.11376654 0.45516419 -0.13189420 0.00153128 0.19914876 -0.41027081 -0.69887590 -0.39194921 0.07995143 -0.12551031 0.22895721 0.21646450 -0.01576981 0.00435704 -0.45305523
-3.06549406 -0.32369685 -1.04879510 0.39879286 -1.28368270 0.36764008 -0.11451852 -16.97714043 -0.13520187 -3.01100564 0.47351602 -0.35715851 -3.46763730 1.90984130 -0.68254822 -1.01145422 -1.09301293 -0.26955736 -0.72929460 -0.82184315 0.32247698
-1.01243365 -0.66530484 -0.27697384 -1.23192811 -0.00314391 -0.02837512 0.18496259 -3.59327602 0.79850870 -2.68229318 0.25096247 0.39418125 0.86182386 1.23173475 -0.46883649 -0.42144194 0.05405317 -0.15029949 -0.31371155 -0.00292168 -0.27177480
-0.20837933 -0.39427269 -0.95135605 -0.30236611 0.59057152 0.49839321 -0.79451495 -2.21693277 -0.55561006 0.40423381 -0.73443657 0.12751386 0.30922654 -0.96400249 -1.91062880 -1.99264967 0.15716162 0.31002632 0.08021284 -0.22057697 -0.01698519
0.14942010 0.66037703 0.35547116 0.35578367 0.45474687 0.23422499 0.03754635 0.73270828 1.14914632 1.18689978 1.85523438 0.53954953 0.64531839 1.27672184 0.38330644 -0.04205324 -0.09133015 0.85536438 -0.18052027 0.09568340 -0.31430557
-1.77922308 -0.89253259 0.00498799 0.03583308 -1.22823310 0.18957403 -0.11755417 -1.52071321 -0.01043902 0.12568504 -3.13191509 -1.92372036 0.27224058 0.72474819 -0.26049629 -0.61804205 -0.33837447 -0.42775169 -1.25593030 -1.41769433 -2.55135942
0.14076422 -2.18426037 -0.05097899 -1.54495394 -0.17827898 0.70301425 -0.01978098 0.44384566 -1.49447894 -0.06582385 -0.12821560 0.12022170 -0.12557840 1.09658337 0.01695106 -0.72503996 0.05839195 0.10167986 0.33310777 0.36932251 0.91556907
-2.13545918 3.51945400 -0.02976350 0.49790996 -0.39975068 -3.54384065 -0.15057845 -0.62470716 2.33459592 -0.17908382 -0.68750268 0.07080326 0.27889213 -2.67782831 -0.17607278 0.48402059 -0.16043949 0.31485012 -0.12167562 -0.23432043 -0.25988677
-27.80631638 0.70789546 -1.76984906 1.81768525 0.07592842 -2.50947881 -0.21319899 -3.33444691 0.31876415 -0.47681254 -1.00171232 0.10116602 3.17443776 0.06466766 -0.97473556 -0.94476765 -0.26586708 -0.24820819 0.19313805 -0.14450023 0.55367178
1.62709701 -2.27668571 -0.48734641 -0.87045115 0.46041584 0.40722996 0.01396229 1.95540512 -2.36509085 0.54769474 0.79961026 -0.05977225 3.73745036 0.00121391 0.23337248 0.46318096 -0.34073961 0.17554042 -0.45512205 0.07102761 0.30994511
-0.53873187 -0.23773345 -0.14248759 0.40640897 -0.83379227 -1.45328641 -0.46938169 -1.86097717 -1.62654245 -0.97427368 -3.75184560 0.55313468 -0.58652484 -1.41920519 0.72155595 -0.13459779 0.23427671 -0.15945050 -0.96897727 0.14937054 0.33316711
1.25797486 -1.71573126 -0.22774957 -1.48607016 -1.20404184 -2.09146953 -0.07919099 0.47650254 -1.21392179 -0.26581365 -0.75109166 -1.23688865 -1.78307188 0.06563674 -0.53016329 0.49782753 -0.10583657 -0.12780613 -1.36299753 -1.11762762 -0.95469874
-6.69049644 -0.23581420 -0.44792905 -1.15384352 0.07324308 -3.61378860 1.03333509 -7.53062963 -0.87232739 -1.87174332 -3.13635206 1.48458219 1.65207541 -2.24902749 -0.19131379 0.38748646 -0.96451849 -0.68022513 -2.22727656 -1.73471367 0.13542569
0.73361820 -1.37301219 -0.01253925 0.10840291 -0.36436504 0.24339564 0.08045083 0.39369416 -1.40764642 0.59255964 0.34978452 -0.26039141 0.37589312 0.06072222 0.50937343 0.12390405 -0.02867390 0.03687593 0.38412985 0.10317625 0.66339552
-1.58362746 -0.72024983 -0.17072046 -3.24050927 -1.44736421 -0.30861861 -0.02946651 -1.80309665 -0.30851710 -0.40084001 0.27601498 -1.08220375 0.11481299 -0.00249241 -0.45776784 -0.00176892 -0.49207711 0.43921536 -0.76963347 -0.66044873 -1.32993484
-0.22123696 1.22644722 -0.93276972 0.18343142 0.39081511 -0.53528935 -0.17435835 -1.05956161 0.56172991 -0.82051897 -0.63478780 0.37258106 -1.01857841 0.01927871 0.13402095 0.17489339 -0.19305016 0.20428158 0.24398728 0.82763457 1.08633852
-1.42713559 1.52083552 -1.25317347 1.27739465 -0.03894278 1.48081255 -0.07845087 -0.17527364 0.81741202 0.07080419 -0.19432914 -0.12779166 0.54071373 -1.38891768 0.11743941 -0.03935057 -0.11044333 -0.00874925 0.01056464 -0.35117397 -0.09310775
-4.56628132 -1.32994211 -1.48680794 1.24623775 -0.40883794 1.87404835 -0.43510830 -2.89941549 -0.75795269 -1.07168162 -2.76525497 1.38956749 1.90088141 1.79498053 -1.42211044 -1.60688424 0.23456100 0.79493570 -1.91885674 -1.47744858 -0.23169659
-0.08582021 -0.57404715 -0.03334484 -0.29430017 0.23466955 -0.63117844 -0.02524197 0.60552454 -0.26003703 0.02521280 -0.20039229 -0.11487900 -0.49460703 0.79144800 0.38264918 0.78327084 0.16215812 -0.03090608 1.70084345 0.04645776 -2.24418139
0.56141007 0.50195408 -0.85312909 -0.52898365 -1.65080786 2.25143981 -0.15592508 -0.69252700 -0.53057098 -1.27774024 -1.19482136 -0.05593058 -1.45478964 -1.30009198 -0.04215066 -0.62572604 -0.19346915 -0.60604882 0.12490103 -0.92807913 -0.38619521
0.09170555 -2.31374669 -1.31638277 -0.18254937 -1.14599717 0.68941569 0.04199126 -2.33208585 -2.90264368 -0.04279827 -2.08499765 1.11449254 -0.40822536 -2.17024398 0.71619463 0.26467389 -1.39682508 -0.17838159 0.42310253 -0.55773586 0.41560590
0.43731213 0.44872141 -0.04031293 -0.28627446 0.02332398 0.16770267 -0.04752707 0.57713437 0.68081164 -0.22612672 2.09141564 -0.13965021 -0.07002348 0.31406918 -0.32088485 -0.00576212 -0.12789848 0.05885968 0.21999395 0.31156981 0.16953331
-0.77314860 -0.15294233 -0.64893913 0.49043679 -0.17940633 -1.50536823 -0.08305993 -0.66997850 -0.22634658 0.66892940 -0.32887372 -0.31913063 1.01734865 0.03884812 -0.25511006 -0.26595193 -0.12388222 -0.11122769 -0.04833534 -0.15176052 0.50164175
2.28878045 1.54965734 -0.10573695 0.63653219 0.32874921 -3.96201134 -0.06015156 1.04313707 0.71738970 0.53171057 -0.26453918 0.15302053 -1.00813746 -1.31043363 -0.00101536 -0.12844731 0.11561375 0.04538915 0.15380847 -0.13310191 -0.21899481
-1.15540540 -2.00741339 -1.64696872 -1.21225250 -0.84689689 0.65721422 0.06746932 1.07947147 -0.44280171 0.77693415 -0.91448981 -0.88318503 1.74420238 1.14858806 1.21744025 1.23136294 0.62265182 -0.19256346 -0.54894024 -0.54915798 -1.02227473
-0.07528856 -0.02823609 0.57411736 -0.34256619 0.69576919 0.38069999 0.17615914 0.26564735 -0.71437460 0.41742840 -0.55074382 0.94159019 0.49858284 -0.27734903 0.60944903 -0.22095092 -0.16018847 0.09085223 -0.10103285 0.53392434 0.50019848
-2.94932866 -2.78412104 2.31162214 -1.71853232 -0.31896830 -0.02997718 -0.14292397 0.14181367 -2.61082458 0.56708908 -0.31824788 0.11766148 0.00741665 1.83055770 -0.18719494 -1.57922900 -0.57432818 0.47022477 0.79730064 0.79321766 1.14396620
-0.52351749 -1.15515101 0.10804161 0.02248891 0.11818705 0.00657201 0.06123674 -0.97181582 -2.28384876 -2.76503921 -0.08866277 -0.02019209 0.22274266 -1.44806671 0.00676636 0.11762358 0.15509066 0.02643741 0.36308327 0.44848028 0.86807370
-0.10622684 -0.33371529 0.02711543 0.40752277 -0.53608537 -0.24630320 -0.05999299 0.37539434 0.10422344 -0.50187939 0.16119877 -0.31777549 0.63014817 0.21876386 -0.70586568 0.20443247 0.04041106 -0.03899702 0.05233533 -0.58052123 -0.32130605
0.27596599 2.39253855 2.53592205 -0.95728737 -0.11829474 -0.01541304 0.22735576 0.09056655 1.86586022 0.02654663 0.20434089 -0.44209883 -0.32158992 -1.80599546 0.27456796 -0.44980586 0.11391174 -0.19133872 -0.47568381 -0.50825369 -0.93361926
0.46297958 1.10124767 -0.26334727 0.95683098 0.22938746 -0.96500540 0.31548274 0.59331316 0.55827606 -0.96687078 0.90238655 0.08523706 0.71217990 -0.30940720 -0.17013180 0.32889095 -0.10912490 -0.14734772 0.21524471 0.10845501 0.58558846
1.23925185 0.09248652 -1.30999863 0.08440680 0.63586849 0.68292695 -0.10752181 0.32349050 -0.92466748 1.44179761 -0.75302261 0.12090880 -0.65392226 -0.94913185 0.33597052 0.14486335 0.01919725 0.29673427 0.01068944 0.24181619 0.85952473
0.33360246 5.27825403 0.08974440 1.01365817 -0.03193788 -1.78278697 -0.19339457 -0.28072703 4.03310013 0.16992915 0.09876280 -0.15793431 0.41871357 -3.89868236 0.00264415 0.24669108 -0.11566821 0.22629742 -0.16969413 -0.49088946 -0.85154545
0.84879375 -2.89193177 0.17376648 -1.84326708 0.45554247 0.46702924 0.02084752 -1.44910502 -2.01790667 0.01527547 -0.44686994 -0.04605703 0.36390567 2.21492720 -0.27445111 0.52826947 -0.20214640 0.16941749 -0.02816533 0.18545200 0.35267842
0.05753370 -1.69168878 0.48213097 0.75069523 1.07840180 -0.72096258 -0.13510239 -0.01056663 -0.38566506 -0.53224421 -1.28916764 -0.12588342 1.35329390 1.71113336 0.20074072 0.25650284 -0.53017181 0.19480821 -1.58045745 -2.93053675 0.17679000
3.14199543 -0.89154172 0.34651655 0.11889194 -0.00938298 -0.17178825 0.16308101 2.25870275 -1.08519459 0.02126291 -0.55901074 -0.03475330 -2.39645219 0.41203925 0.00637331 0.03159871 -0.06113957 0.04287081 -0.31813017 -0.19451787 -0.51948345
1.50390589 2.75074029 2.17356777 1.24140561 0.23111601 -0.50596339 -0.07904001 0.56709534 2.08579850 0.66079915 -0.27792555 -0.10576364 -2.05543804 -2.47003174 -0.10956921 -0.32020885 -0.09609926 0.05041809 -0.23469397 -0.30409616 -0.63603282
0.42723736 0.49562660 0.32861400 0.08089761 0.15997420 -0.55651164 0.12963320 0.39051613 0.83810258 -0.10807788 0.10832905 0.00510459 -0.04762989 0.68754178 0.07577295 -0.02140876 -0.03757439 -0.09287350 0.38220394 -0.03175507 0.55203539
1.56360936 2.11978054 0.32922953 -0.00710200 -0.21827066 -0.21727613 -0.06531803 2.43212652 3.36637926 2.98459148 0.28793052 -0.19741444 1.40843737 1.90603840 -0.22965199 -0.02752763 0.24691768 -0.26976958 0.25157037 -0.41518682 0.03806158
2.07712317 -1.86253738 0.11143736 0.18298192 0.29438069 0.11200196 -0.03298913 3.37424183 -3.19098234 0.78407073 -0.09000101 0.07137322 2.24132109 -2.45547342 -0.08473703 0.01090030 -0.08693658 0.18213391 -0.13556242 0.26399457 -0.05896240
-0.52463740 0.68132156 -3.52571297 -1.84714282 0.41696748 1.60517609 0.09327213 0.14651829 0.48615032 -0.60692483 0.11815194 -1.90469253 0.59631449 0.69256115 0.48961121 1.26501250 -0.20565145 -0.12289519 -0.91534865 -0.65896511 -0.60643405
-2.38448739 -0.57598853 0.00573116 -1.06644309 0.47411558 2.34543419 0.14691593 -2.62835026 -0.43272498 -0.27997392 -1.38508642 -1.64491403 0.66364694 -0.23673889 0.23023531 -3.33452058 -0.83286166 -0.83337706 -0.02247033 -0.39998552 0.39136973
-15.63898659 -0.76026583 2.22971535 -4.83889771 0.06317157 0.88389122 -0.56327343 -0.27025077 -0.36867186 -0.49797130 0.00222701 0.13306344 1.42923689 0.15738998 0.45686156 -1.16991138 -0.40190199 -0.36140952 0.29848719 0.53279620 -0.18051268
-0.42766467 1.48595750 -0.20136061 -0.66061670 -0.09285389 0.30723023 0.04066665 -1.92740130 2.24541688 -2.31781030 -3.54356265 0.17253201 -0.25422874 1.20551109 -0.37243167 -0.64594442 -0.36949793 -0.00522948 -0.12141293 -0.23481469 -0.15053880
-0.22968984 1.09594572 -0.37248999 -2.50174713 -0.15305500 0.35568982 0.12779406 -0.00582772 1.00074136 0.03143429 0.09056117 0.58084762 0.13955835 -0.59932983 -0.17492616 -1.25680780 0.25735882 -0.30956495 0.20008440 0.10550742 0.26422638
3.20437860 -1.86139524 1.13816619 -0.50824296 -0.32622847 0.81684518 -0.09749328 2.64044356 -0.81620550 -0.31948340 0.14736190 0.40752843 -2.58778071 1.66399300 -0.29386741 -0.63541168 -0.04043030 0.04130926 -0.23907708 -0.06913394 -0.09329297
0.92618364 2.38032889 -1.93262434 -5.01343632 0.14615329 -0.79699159 0.10298739 -0.99438649 1.03454864 -0.22982591 -0.70294404 0.14432506 1.09108365 -2.04952431 0.07954139 -0.26149568 0.00827294 -0.21369964 0.02583948 -0.47191006 -0.63550675
-1.94697368 1.75239980 -0.58783978 0.26982626 0.13348925 0.39106750 0.11044886 -0.56933105 2.02937198 -5.15488434 1.28369987 0.13492304 -0.74553668 2.33317900 -0.37284002 -0.66842908 -0.09623845 0.09581350 -0.88387418 -0.40263441 -1.08719623
0.44070446 1.08678424 -0.20468116 -1.93047488 -0.79442459 0.18729469 0.21191807 -1.59994745 2.35948658 -0.56902713 0.21899383 -0.66375524 -1.82366180 2.87944174 0.06712282 0.82234055 -0.27940798 -0.32767752 -0.11435284 0.64330214 -0.21571806
-5.66251945 2.45365834 -0.41261703 -0.24525507 -0.42255417 -1.04783201 -0.19234283 -0.11060324 1.12598121 0.20418015 -0.93052399 0.16680527 0.54234809 -1.99921596 -0.28657123 0.33042598 -0.05677485 0.18977647 0.07552369 0.72710884 0.63501191
0.52919018 1.35129035 0.52039522 2.15120530 2.16461921 0.10006440 0.73551041 -1.26121843 -3.07570028 -0.89277023 2.31075001 3.42858148 -1.52190590 0.83134162 -0.55698532 0.75446844 1.08741117 -0.63045245 -2.82250047 -2.51104403 0.63152266 -1.87171876 1.24683273 -1.86711347 0.57356429 -3.66175818 1.20858765 2.59883165 -2.05683994 -0.73587936 -1.58682132 -1.33355367 0.55828494 -1.48504353 0.84501952 -0.56118798 2.86846852 -1.76401746 -0.60467035 3.46998620 2.12038994 3.33401752 2.69221997 -1.97752726 -1.70531774 3.47968054 -6.46230555 2.07140326 -0.23671494 -3.99307632 -3.11021376 -0.51516634 -3.30372977 -2.63279700 -0.85429865 -0.21155056 1.04278588 -0.37643158 -0.12992838 -3.00357985 -0.63021058 -2.15173006 -2.20204854 2.45157003
64 64
0.10650329 0.29541871 0.07574835 0.05299561 0.12549461 -0.04098231 0.43568015 0.40622190 0.50589132 0.13886723 1.34460771 0.17083044 0.33283615 -0.11743000 -0.20877138 -0.04755690 0.16434044 -0.71211356 -0.61211187 -2.97712231 0.80340570 -0.15344040 -0.04517807 -0.04001582 0.11353794 0.23597586 0.78131294 -0.11032514 -0.23017381 -0.19598271 -0.41382381 -0.15541969 0.18735093 0.19919147 0.40202412 -0.10323954 -0.03155379 0.27972034 -0.40845045 0.02811009 -0.35833222 0.03619301 0.02740895 0.35424426 0.51847273 -0.01473729 0.69247788 -0.11385917 -0.04723369 0.00762179 0.47314268 0.22076009 0.10942298 -0.25756529 0.49308422 0.19271098 -0.03252184 0.07379736 -0.24930540 0.55450702 0.22095945 -0.10433445 -0.00745028 1.64888501
-0.03487251 -0.48262736 1.18576479 0.30283085 1.06098473 -0.69299895 1.99847150 -0.33941928 -0.34445834 0.52546453 0.56642377 0.11406501 -0.03050883 -0.13442035 -0.00882532 0.21514158 0.74465436 -0.69332278 1.37827635 -3.01301885 0.41076866 -0.14959684 0.91171026 0.51722389 0.32260299 0.37206921 0.89901030 0.23640200 0.32948250 0.30427545 0.42022386 -0.02288744 0.14103386 0.63785940 0.36298156 -0.16092926 -0.11780638 -0.35522667 -0.39675853 -0.22452204 0.45698681 0.05362878 -0.07701042 0.35388717 1.16995358 0.34705874 1.38353240 -0.24252883 -0.03373962 2.24955845 0.96571434 0.86704588 1.07510114 -0.44236615 0.41467643 -0.05494086 0.09544408 0.20685859 0.28970748 -0.04398607 0.03933324 -0.87031680 -0.08942196 -0.04725515
-0.66944093 -0.13821286 2.47526598 -0.33006331 2.03802228 -0.55599022 0.93400216 0.37375507 0.67251641 0.13015063 0.57649392 -1.15060818 2.37958264 -0.42893642 -0.47386497 0.07951937 1.47382009 0.11855491 2.00343394 0.42321286 0.20908800 0.41751632 1.87482011 1.17668498 -0.06461398 2.66015792 1.67943692 -1.05761731 1.89367497 -0.05948094 -0.01651399 0.12437335 -0.21946457 -0.27133471 -0.94327927 1.06365871 -0.29484656 -0.05058093 -0.90550184 -0.82305306 -0.30536395 -1.59376991 -0.48155129 0.64145154 2.75770783 -1.06845200 0.32116577 -0.21604984 -0.74770105 2.06092191 -0.50976676 -0.24799639 1.39309347 2.87467933 -0.27079695 -0.13240905 -0.60492557 -1.48178935 0.45216525 -0.34977835 -0.39938384 -2.60834837 -0.59698790 0.77045870
0.37905091 0.29899406 0.41747797 -0.08610382 0.43287101 0.10112715 0.87061352 0.16796303 0.35112849 0.26366392 0.85889381 0.63783938 0.31364429 -0.42392740 -0.41012004 -0.72822112 0.33698004 -0.88973278 -0.72634953 -1.96003199 1.24899626 0.01060679 -0.04738634 -0.15401842 0.09455529 0.16936019 1.30668497 -0.16147405 0.99061859 -0.13365872 -0.46609086 0.43214962 0.38231567 0.08748579 0.36522064 0.04884227 -0.31621021 -0.19210427 -0.26944056 -0.03438408 -0.68190664 -0.22135200 0.09248473 0.34505540 0.34146678 -0.00476217 1.83466411 -0.15408967 0.09078483 -0.65680456 0.18666641 0.62757653 0.16317880 0.11484089 0.56551391 0.14851469 0.03420121 0.06369200 -0.28477210 0.42637584 0.49938908 -0.42116919 -0.02367584 2.21035957
-0.29727247 0.20107643 0.05263583 -0.19467451 0.38437060 0.09669868 0.86043292 0.09790611 -0.17521212 0.28270683 1.29824698 0.12797359 -0.77493137 0.07509189 0.02088867 -0.28503925 0.30979151 -0.91723329 -0.56042898 2.06679225 0.84757012 -0.66765869 -0.04102645 -0.26185980 0.26199180 0.73544592 0.75140411 -0.61993718 -0.60336995 -0.50690722 -0.32576001 0.01270145 0.39676717 -0.09683204 0.16136758 -0.11325322 0.16162100 -0.32497638 -0.22758164 0.25466719 -0.15375414 0.15213475 0.04280140 0.11729410 0.34429926 0.27976984 -4.14309406 -0.33871675 0.66214943 0.09673108 0.32930711 0.02238674 0.05486274 -0.27263913 0.64799172 0.08611106 -0.06233546 0.01884015 -0.13922653 0.32028350 0.14829679 -0.02263035 -0.46124873 1.39481115
-1.73853159 -3.59551167 -0.49469107 -1.79270148 1.16215563 -2.04180861 -0.39885035 1.15668929 -0.88711268 -0.30641255 -0.02487175 -0.88585877 -1.46514249 0.15767322 -1.16550350 -1.74763930 1.19437015 -1.62090528 -0.55461931 -2.87170529 -1.33048725 1.88218522 1.30017495 -0.82540280 0.90757334 1.50063837 0.56636506 -1.90698826 0.34846601 -2.46695232 -0.57362497 -0.12835717 0.23683207 -1.10028887 -0.03703821 -0.06081147 -0.84915096 -0.03536570 -2.17274380 -0.85341948 -0.39563528 0.18705696 -1.33837306 0.63155001 0.69748855 -0.78673911 -0.18659231 -0.94250762 1.51609361 0.94987541 1.11744809 -0.05493008 0.57676727 0.40525526 -0.07568800 -0.60876191 0.17662054 -0.20633271 -2.16458797 2.27158880 -1.48813045 -0.59814459 0.56790775 0.74789858
0.57251000 -1.55305552 -0.32301563 -0.92729950 0.40668580 -0.51125693 -0.80267340 0.84062904 1.48147535 0.70078331 2.70853019 -0.99334627 -0.41868827 -1.34153843 -2.36502886 -1.79100132 0.95141912 -0.32110956 1.20055079 3.67385793 1.61188364 1.59598291 4.14004946 -2.22598076 -0.18132730 3.56565833 1.21405244 -0.70644671 4.09230042 0.87707067 -0.57835847 -2.12310910 -0.66562408 1.08674252 -0.75360847 0.22541785 -0.63588673 1.03790462 -0.44932741 -0.83952177 -7.42695665 -1.10298812 -1.05755401 -1.57636821 0.64353800 -0.12251916 4.61144400 -1.99437249 -0.68788320 4.05095673 1.68132877 -0.11403368 -0.31840894 0.56804395 -2.07346368 0.64022392 -0.91015732 -1.09158850 -0.32777125 2.86103058 -2.24450445 -0.37079194 1.09798992 1.31207538
-0.22869813 -1.16728044 -0.83810043 -0.87518162 -1.62794220 0.79326606 -0.69004768 -0.13592631 -1.01431465 -1.65341258 -0.40534934 -1.36941814 -1.65999508 0.02684572 -0.71640664 -0.46605891 -0.38478458 -2.11443543 2.46569800 -1.34774566 0.14648950 -0.23157105 -0.68466258 -0.79432297 1.23842430 0.85958809 0.54836816 -3.84753275 1.02835000 1.09339821 -1.97192335 0.18034986 -0.17057206 2.18029475 0.43344760 -0.91790456 -1.48082578 -0.93468869 -2.00973964 -1.66653740 -2.10715151 -0.25569406 -3.37987876 -0.20953761 0.73032904 -1.82934892 0.91599590 -1.80799353 0.35654122 0.96547198 -0.48238787 -0.05167790 0.53884166 0.47878122 -2.05895805 2.07301497 0.28926900 -1.29025888 1.46741247 1.29142368 2.77728844 -2.26952410 0.38595843 0.52348632
0.46467507 -0.06008508 0.21738546 0.16200349 0.47345760 -0.57912183 -0.31170964 0.16938639 0.46673810 0.46195447 0.03035970 0.17397572 0.33559754 -0.15844177 0.64189750 -0.31207672 0.34929785 -0.74950731 0.89694583 0.54332972 -0.03253011 0.83754355 -0.79458857 0.45177296 1.01755464 -0.18715382 1.60749030 0.26896957 -0.47615585 0.31592408 -0.15709481 -0.23126741 0.12605071 0.63070202 0.88096839 -0.12892897 -0.21414715 0.48360020 -0.17012429 -0.40841007 0.62555677 -0.26492241 0.19928287 -0.71775693 0.65205711 0.41008136 -0.52025807 -0.74178648 0.52860600 1.74412858 1.93436790 1.09742463 0.67064428 0.25558341 -0.41332218 0.47906068 0.17243199 0.27760383 -0.35668153 0.75322109 0.01085066 -0.18061101 0.42329729 0.31855437
-1.06666529 -0.16612218 -1.72076011 -4.18409157 2.65142989 -0.49988729 0.13920847 0.26067543 -3.27361155 2.23878765 0.38219586 -1.31334138 -0.67811179 -0.63520163 -2.10063648 -2.49783921 0.35693106 -0.70643532 -0.11578169 3.84643912 -0.16158253 -1.39595997 2.51213813 0.16260655 1.01130331 4.32652617 0.37338904 -2.21307969 0.00837689 -0.68477535 -2.31941628 1.14153564 0.73177248 0.08360442 -0.10316964 0.09359431 -0.69159001 -3.02380967 -0.21331628 -0.74157363 -1.49126554 0.04607001 -2.95941877 -0.07471003 0.34234560 -0.24763355 -3.86778903 -0.24411674 0.37752640 1.12496257 -0.17019823 -2.24194694 -0.26382545 0.86351258 -0.19674064 1.17576385 1.77082562 0.89094514 -3.14081621 0.52828658 -1.73698449 -0.44109726 -0.16529059 1.25292814
-0.31695154 -0.30897650 0.25570774 0.57847673 -3.30441689 -0.43625462 -1.57890320 -0.07416955 -1.18485224 -0.76042348 -0.56409645 0.31371418 -1.81446433 0.51247692 -0.04321122 0.69631058 -1.32493579 -0.07597858 -0.52148730 -4.87983847 0.35296530 1.21455908 0.27586919 -0.73446488 -0.28055918 0.54009408 -0.72868943 0.41657650 0.63795632 -0.40443802 0.04059709 -0.43844596 -0.03833679 -0.53963518 -0.02709719 0.25375307 -0.10804071 -0.19812304 -0.64110070 -0.16792259 -0.26678258 0.23728251 -0.84788752 0.24261326 0.89419967 -0.07358547 4.62891722 0.51388669 -0.01745255 0.90596759 -0.58639556 -1.69244385 -1.55721521 -0.86650640 0.03802843 -0.58469802 0.24301606 0.54570824 -0.14571500 -1.14166629 -0.24847437 0.53971601 -0.97714865 0.22044751
0.27168721 -1.06462264 -0.26301593 -0.54318279 -0.59841275 0.03153921 0.52849591 0.37397590 3.22307658 -1.48557985 2.22943163 -1.57863402 -0.23288096 -0.41437861 -2.84801269 0.51605958 0.08042610 0.13173521 -0.10035470 -0.15971491 -2.35532546 2.18278790 0.97561747 0.02402007 -0.85861838 2.58213353 1.03621924 -0.31027541 -0.68753368 0.77134377 2.57253742 -1.86007154 -0.91905248 -1.49946856 -0.85818237 -0.41008431 -0.34177983 1.12819719 0.36017123 -0.62087482 -10.37517452 -0.95266974 -0.33921021 -2.99461722 0.75474268 -0.76476967 2.62415338 -1.04723322 -1.36964786 4.13989687 2.68368196 0.49928036 0.31632885 0.41360635 -2.34378219 -3.32547021 -1.30013728 -0.59856707 -0.97064131 2.92615843 -1.76193619 -0.30110738 -0.42803112 1.82809126
0.41592500 -0.05765547 -0.45427984 -1.47041750 -0.34654236 -0.06368025 1.16373265 0.28968984 2.39409208 0.70341009 3.30124712 -1.31958759 -0.10309976 -0.58103168 -3.45743489 -0.01096199 0.75570869 -1.14607668 -0.85887545 -0.43442038 1.08764255 1.42830503 2.05866051 -2.09739065 -0.52072954 0.78473157 1.01389742 -0.63118982 -0.84737927 1.14970684 -1.57707632 0.13418378 -0.87867302 -0.13012837 0.10703931 -0.23989084 -0.82987607 2.02618432 -0.98052925 -0.98647213 -8.57715988 -1.05587828 -0.78614998 -1.04390156 0.90058768 -0.91244531 3.25080705 -1.02669621 -0.48476529 1.81344724 2.09746814 0.38044775 0.54584259 0.35732207 -1.82768238 -1.92727411 -3.75289893 -0.79049546 -0.87150806 2.51235819 -1.87635219 -0.03335112 0.88286948 2.93664670
-0.20689495 -0.71834052 0.13076009 -2.21887684 0.12843350 0.40187073 0.60621357 0.19657461 0.56596118 -0.61914879 0.12889224 -0.02363006 -1.95412564 -0.13831113 -0.05712885 0.19948255 -0.01163640 -0.03687280 -0.05908335 -0.12207837 -0.78880477 0.10397383 0.52503687 -0.17390217 -0.06529792 -0.10318860 0.07008072 -0.34657770 0.53906584 0.21965455 0.36527416 0.02196337 0.01897966 -0.20650609 -0.09015048 0.70444369 -0.15166873 -0.07334672 0.26901788 0.68855685 -0.01483002 0.37761447 0.38163504 -0.18002793 0.00431148 0.63360876 3.37975860 -0.52620047 0.08469959 1.07154834 0.04028860 -0.08258285 -0.23096289 -0.65716314 0.02755338 -0.32287461 0.01212604 0.17627282 0.12197834 0.00061948 -0.44054618 0.08808250 -0.06223668 0.06280258
-0.11627648 0.73474038 -0.40779275 -1.53088439 -0.41183397 0.01807997 -0.07157271 -0.29344335 0.31265083 -4.27787161 3.07597399 0.06805418 -0.21537541 -0.75701898 -0.97844601 -1.43949497 0.22266103 -1.31949258 1.81243253 -0.58590943 -1.63739216 1.10057199 1.61116838 -2.76139355 0.58289361 -0.72064233 0.90740180 -0.73968154 -0.10551921 0.36528534 -3.07987332 -2.08122444 -0.88045841 2.61022806 -1.09593475 -0.32713920 -1.16872847 0.94192624 -0.44369346 -0.90502244 -2.00846505 -0.73106712 -0.29400533 -2.15625405 0.90537262 -1.05257654 1.62429774 -4.52983665 -0.16527981 2.35783720 -0.18473546 0.82177901 -0.02679787 0.42331982 -0.17502411 -2.04207945 -2.15552068 -0.14554611 -0.99750656 2.50005126 -2.31761122 -0.80545902 -0.24734768 2.84704304
0.73773670 -3.63047957 -2.01590085 -0.67051136 2.56987596 -9.83547688 -0.25699824 -1.05897033 -0.67822051 0.66844195 0.79733366 -0.99304366 1.21833813 0.01070042 -1.30847943 -2.13362598 1.12229311 1.01582015 1.91456473 1.19902480 -0.04190093 -1.61880112 0.66463763 0.54463816 -0.61444175 0.09857605 0.05079864 -0.31524450 -0.14186254 0.97255588 -2.52283812 -0.68441457 -0.55336529 -1.97019219 -0.53904825 0.46609616 -0.48890418 -1.48535895 -1.80123341 -1.10102630 -1.96837258 -4.52683210 -1.44593990 -1.05526757 1.69862294 -0.97716916 -2.06422615 -0.75660574 -3.90468550 3.38391280 -1.82151365 -0.07989931 1.39833736 1.68782282 0.64308405 -0.06939936 -0.14766131 -1.70759594 -0.16803364 -0.17786503 -1.17398620 0.78513145 -0.75734127 0.06217530
-0.10196540 -0.10068608 -0.07483429 -0.14363448 -0.00487147 -0.04326504 -0.04905869 -0.14185596 0.08925293 -0.07642840 -0.05280973 0.06051671 -0.02041116 -0.05492576 0.03325732 -0.05837594 0.08847050 -0.01246150 0.05774677 -0.00559972 -0.05559591 -0.06432983 -0.02710194 -0.04048741 0.06220562 0.05491951 -0.06626633 -0.07844344 -0.02652675 0.08057391 -0.01986766 0.07007521 0.00888943 -0.02974822 -0.11943135 -0.01121249 -0.09460183 -0.09734299 0.05665871 -0.09732733 -0.06969028 0.05373092 -0.06610482 -0.11749291 -0.04631649 -0.02414728 -0.10973828 -0.14892715 -0.12261387 -0.02165202 -0.02107113 -0.11742744 -0.09055367 0.00170796 -0.13969678 -0.08699220 -0.08008165 -0.14865233 -0.02578640 -0.04178017 0.01419899 -0.02608294 0.05383399 -0.03140264
0.25872400 -0.03502947 0.37860990 -0.24549311 0.45589766 0.12506089 0.89336491 -0.26212761 -0.73141676 0.84190196 1.38569570 0.31346643 -1.25386119 -0.64521408 0.07443428 -0.56090367 0.65833187 -0.64986837 0.51324147 2.25815725 1.38281262 0.54593569 0.54426324 0.07956856 0.46928918 0.39957169 1.16449475 -0.38504174 1.20318460 0.39748818 0.00009271 0.37813276 0.48651385 -0.02728373 -0.00562234 0.13489421 0.10500691 -0.58660239 0.13188767 0.12939297 -0.39686111 -0.20210795 -0.05236162 0.29849920 0.24429870 0.14132538 -1.79681730 -0.22469132 0.74680990 -0.80337095 0.32525152 0.94431293 0.61831272 0.20271894 0.16655195 -0.07774452 -0.09729841 0.21626098 0.23443961 -0.15030086 -0.06222048 -0.37018424 -0.06004780 0.25378758
0.51345628 0.59673148 -1.16397357 -1.70685649 -0.81190974 0.32775468 0.71325666 1.22536922 1.84022272 -2.26230645 3.47832584 -1.18558896 0.11002307 -0.94882900 -3.98121309 -1.41482174 1.45350790 -0.31463358 -0.58184522 0.99483770 -0.34409112 2.86446905 4.47790337 -3.63757157 -0.37666929 2.39718103 -0.16093105 -0.95466477 -1.31093776 0.76678550 -1.36585903 -3.32919455 -1.22478390 -3.98079252 -1.24903274 0.16317657 -1.56518137 1.52403700 -0.24847965 -1.19051790 -7.48678303 -1.01086485 -1.46989644 -4.04656839 0.78162020 -0.80338007 4.62216473 -3.23155499 -1.73508203 7.16010523 2.73886847 -0.06805367 0.39847326 1.26276803 -0.52272266 -3.38662267 -1.53051686 0.50097072 -2.25858498 3.82574749 -4.88436270 -0.89431065 1.08788657 2.58212209
0.11200204 -0.03538971 0.22525403 -0.71152234 0.03667847 0.89383310 0.84932858 -0.17274804 0.37800020 0.20037267 0.10347562 0.63481224 -2.92852712 -0.03367840 -0.09081442 0.59296441 -0.19692166 -0.06263623 -0.93284410 -3.77162051 -0.82613516 -0.31795189 0.09789430 -1.37811494 0.07225072 0.87501484 0.34355474 -0.09231748 -0.54726869 0.14600812 0.55365837 -0.07605247 -0.12808599 0.04154015 -0.02882472 -0.04142672 0.51736951 -0.05525886 0.65037543 -0.75708705 0.18339558 0.95934844 -1.14670849 -0.03499457 -0.31096599 0.24401774 -6.67602491 -1.00848484 0.22645825 1.33107281 0.04633639 -0.23583236 -0.35036692 -0.25380886 -0.20503739 -0.18856975 0.07891940 -0.01916467 0.10453869 -0.04812619 -0.13279067 -0.33423066 -0.70244062 0.29441869
0.15505031 -0.44569287 -0.30274662 -0.56534958 0.20090827 -0.34223619 -6.10104656 0.46787462 1.20214927 -0.79539019 0.20553660 -0.45244095 -0.43356022 -0.41572103 -1.31003666 -1.63918471 -1.58066273 -0.73836160 -0.01828399 -0.23387699 -3.72540617 1.45258760 -1.50905108 0.04362599 -0.49985456 3.10440493 -3.26558948 0.08356152 -0.70916533 0.85101640 -0.27645931 -1.02532315 -0.95048684 0.11069571 -0.01322711 -0.10777916 -2.43730688 1.67111480 -1.11294365 -1.39111793 -5.23491764 -1.02388799 -0.81362575 -1.77281785 0.78015083 -0.33415768 0.24681324 -4.70542669 -0.50863642 4.04387426 1.71704900 0.93010879 0.30011570 0.62747723 -3.19537473 -1.93930614 -3.51587415 -0.65808374 -1.31559372 2.73703456 -2.85030484 0.92192459 0.35048601 1.47919023
0.17751113 -0.85935009 -0.46071962 -0.49479049 -0.48175678 -0.28876033 0.36762273 1.60422289 2.62444997 -0.82869858 2.71917677 -2.12284970 -0.68039590 -0.88826984 -2.08058429 0.61077672 0.31612417 -0.18196906 -0.41962859 -1.58812571 -4.18601084 2.54176712 1.80365205 0.73554832 -0.62437087 1.25472450 0.12071932 -1.67594397 2.34439850 1.43432641 -1.78564668 2.78626418 -0.59237486 1.20299804 -1.07883799 1.03511512 0.70903021 1.22642648 -0.14224713 -0.15379280 -5.41179895 -1.04552221 -0.29857764 -1.26536477 -0.64306211 -0.07307381 4.67820454 -1.94513118 -1.20298672 3.67348361 1.82827544 0.99507141 -0.08970160 0.99586087 -1.74600315 -0.18242921 -4.17814779 -0.53666681 0.71432269 2.15841389 -2.70097995 -0.24886751 0.08161165 1.09618986
-2.73067927 -1.76488376 4.01690102 0.37408024 7.23292065 -1.72198141 -4.00041914 1.00437117 0.87615591 0.90810311 0.44467467 -1.52854037 1.65033138 -1.47036457 -0.05663246 2.89799595 1.99471855 1.72917378 2.76087689 -1.32588458 0.15421158 -0.74647856 -0.01410353 2.45188904 -5.74371719 3.05108428 3.86694455 -1.05549622 1.12020826 1.21467531 -1.57150328 2.72558475 -0.83492434 1.14539003 -1.87074459 0.99328327 -1.50700057 0.00476673 -2.41059017 -1.06174469 -0.10111502 -2.94955993 -0.83465677 -0.36834642 2.57206774 -1.49218643 -1.71336305 -0.69998932 -2.74295330 1.88611925 -1.35056174 -0.91295844 3.42242384 5.22942209 0.68566412 -2.15345240 -0.97218996 -3.00201750 0.30162480 1.59737730 -0.13657400 -5.48522186 1.33247912 -0.99255872
0.34254515 -0.42815983 -0.16704543 -0.43408114 -1.54625309 -0.89630204 -2.79634070 0.60681111 0.74068987 -0.46010095 0.49127516 -0.54932493 -0.86719966 -0.58798337 -1.05893326 -0.60320610 -1.72542512 0.43805277 1.21823967 0.49282971 2.22731280 1.17331564 -1.17926466 -0.18192975 0.18186438 1.68931544 -0.67413229 -0.60771048 -0.22822554 0.94171011 -3.60991621 -2.57249999 -1.23499250 0.41942126 -1.13471496 -0.95964104 -1.77935159 1.64029622 -0.97407705 -1.28582537 -2.73927188 -0.56211311 -0.17651166 -1.56976163 0.64377463 -0.34730518 0.55029249 -10.28745174 -0.82959640 4.13596678 1.72714269 0.41971147 0.02956908 0.47555318 -1.37589252 -0.83520240 -3.62866378 -0.74762213 -1.88817430 1.84957826 -4.80292559 0.37986299 1.28067660 2.37608504
0.07914867 0.50640970 -0.85921311 -1.11678684 0.35301068 -1.47269857 -1.62174904 0.25025982 0.36349055 0.50936562 0.26089808 -0.58221680 -1.68772221 0.55740839 -1.25890493 -0.78860164 0.18224013 -0.94392353 -1.46000171 -1.20365691 -0.24831583 0.32977435 -0.77696902 -0.82067811 0.22687210 -0.78015053 -0.03921049 -0.45415610 0.17686157 -0.44676158 -1.91050065 -0.74777728 -1.22358596 -0.96359378 -0.03862821 -1.68186033 -0.42023802 0.33328766 -0.94371456 -0.60259867 -0.74473268 -1.22115254 -0.85058177 -0.65812945 -0.71328729 -0.36127633 0.23335858 -0.75255734 0.37490773 0.09572325 0.26444939 0.17428285 -0.88814199 -0.01875788 -1.30433142 0.02028164 -1.08806694 -0.19070615 -2.21084857 -0.63202435 -1.15634286 -0.70063329 -0.14673154 0.62488174
0.26559377 -0.09691438 0.70117563 0.30388105 0.31670392 0.45989493 1.02360761 0.29128042 -0.36858231 -0.37468719 -0.17509794 0.42805624 0.28614989 0.31736431 -0.51675177 -0.18805850 -0.05191543 -0.03008249 -0.45704401 2.04527235 0.08144297 -1.58101606 1.02515388 -0.05015657 -1.27741385 0.62655503 0.35620269 0.35515770 0.68707055 -0.70441663 0.34129608 0.27786928 0.06563625 -0.01970991 0.09232773 0.07647872 0.10739555 -0.44788402 0.32081360 0.33961686 0.44427368 0.14200220 0.37740839 0.26755542 -0.55075818 0.45951721 -2.59777808 -0.28234261 0.07740459 0.62015933 -0.68351549 -1.61591947 -0.23653883 -0.64495355 0.49597004 0.17148690 0.50091821 0.37652475 0.06560696 -0.89886302 0.16434342 0.36647299 0.16644630 0.72943002
0.46356595 0.38049930 -0.21833862 0.83571398 -0.81520796 0.17200677 -0.05770475 -0.11643244 0.32602766 -0.10847352 -0.00640078 0.01763162 -0.26077241 0.47790071 -0.02482606 -0.30943435 -0.05281563 0.27301627 0.17740609 2.60596609 0.10514879 0.03929362 0.07629774 -0.25687087 0.02196138 -0.19911672 0.86813170 0.08014181 0.38571468 -0.28892666 0.19011152 -0.58343369 -0.04251561 0.10677631 0.16524915 -0.66589475 0.25485319 -0.01368938 -0.08677087 -0.47193393 0.14042716 0.75016958 -0.45273688 -0.10431767 -0.18661101 -0.28643176 1.17119002 0.53185153 -0.04600875 0.66377729 0.15903196 -0.80942082 0.04528908 -0.83191717 0.05023375 0.56886125 0.10097846 -0.11180771 -0.17274100 -0.21991441 0.19889811 -0.02684716 0.83466351 0.31200570
-0.02781158 -0.76216453 -0.34406182 -0.99359179 -0.70407122 -0.26364306 0.45735291 0.31425357 0.00304198 0.46257922 0.77958512 -0.52708650 0.26986399 -0.59910667 -0.21817192 -0.00266829 0.22258016 -0.04790564 -0.04780640 0.95527184 0.65991312 0.33136603 -0.71074831 0.41459823 -0.38573217 -0.17477803 -0.44613031 0.02473071 0.99123830 -0.05601395 1.41390789 0.34151059 0.14460517 -0.13782251 -0.21097271 0.43271276 0.45858550 -0.31038904 1.41802716 1.01565564 0.16218302 -0.29159662 1.44056845 -0.03118259 -0.19057441 0.22725902 -2.15895367 -0.62384957 -0.10716917 -1.97038329 -0.25274694 -0.55916595 -0.37792179 -0.04073799 0.17548591 0.47401571 0.38583219 0.21878614 0.12642269 -1.08101678 -0.26570195 0.17939357 0.10724351 0.63245171
-0.00875865 0.07347864 -0.64713329 -1.44563222 -0.37081456 -0.30107442 0.85748881 -0.07817090 1.57488930 3.31242752 3.61959434 -0.70089924 -0.43427598 -0.15209685 -4.75541878 -1.10154128 1.11763489 -1.61830163 3.17855453 -3.41392350 1.27522039 1.47710752 2.00563955 -2.96196127 -0.14893076 2.30131912 1.60023999 -0.78683305 3.41240382 1.03413510 -1.59911764 -1.12513220 -0.74591798 -0.20955467 -0.93368363 -0.64550656 -0.86461353 -0.82075965 -0.37743783 -0.81479734 -10.80722332 -1.13414693 -1.11168396 -3.00505924 0.31226960 -1.20305657 2.55964136 -4.02940369 -2.04191017 3.97309661 0.86528468 0.49822149 0.39152521 1.26993418 -2.53446460 -0.74933088 -4.05979252 -0.89212525 -0.12731946 3.23202229 -2.56341195 -0.14701326 1.24760008 2.55496764
-3.70423555 -1.65865016 5.51535511 -0.02719172 10.23553085 -2.69827628 -5.81046963 1.26684701 0.92539167 0.79982769 0.44604203 -2.57998943 2.61578107 -1.82852113 -0.06394970 3.71204519 2.34809780 3.38157678 3.97065902 -2.40005922 0.06215603 -2.30361891 0.98050290 3.27904630 -7.29042339 2.96212411 5.05296040 -1.63956726 -2.97289896 1.08084536 -1.58376682 3.89657497 -0.88346827 1.32992482 -4.22663975 1.33976817 -1.45287561 -0.09932179 -3.09794426 -1.63617337 -0.17684682 -3.93585086 -0.81674385 -1.43300319 2.89862490 -2.00129986 0.36668792 -0.74349648 -1.77660751 -0.26877609 -0.78011322 -0.50438583 4.74074554 7.21459150 0.99069744 -2.89797330 -0.62802756 -4.41622066 0.33054259 2.47200680 -0.34268835 -7.46066380 2.15170050 -1.35246062
-0.39573574 0.84918684 0.62644374 0.62271357 0.47739622 -0.15038496 0.09081355 -0.74186081 -0.00714424 -0.62741113 0.11404411 -0.20829909 -1.02851427 0.26718941 0.06454677 -0.79565972 0.32733518 0.09742186 -1.27229190 -1.47454083 -0.11623634 -0.25604847 0.16882689 -1.77253592 -0.33559719 -0.97188771 -0.01853780 -0.53549045 -0.38602179 -0.03166747 -0.38384300 -0.24258995 -0.27130488 -0.05341548 0.12407368 -0.25626516 -0.00414327 0.38745731 -0.76431817 0.02424051 0.13876413 -0.06637683 -0.50039625 -0.24198651 0.02404315 -0.11750843 1.41535163 -0.63420975 -0.20888701 1.31492949 0.10512655 -0.83792090 0.09881373 -0.32765925 0.01941316 -0.16097033 -0.26109350 -0.12320120 0.09264605 -0.18242601 -0.23592941 -0.51761091 0.32041922 0.18748978
1.07562351 0.28228500 -0.72400951 -0.08989921 -1.56440759 0.53384131 -0.42635533 0.40037712 -0.49935418 -0.40787783 0.04865290 0.57486832 -0.75829494 0.05422586 0.15710425 -0.67360598 0.00006561 -0.80179703 -0.41742706 -2.36039972 0.57676011 -0.11147848 -0.42450190 -0.85837317 0.33966818 -0.68120396 0.70981312 0.33800539 -0.14996885 0.13548081 -0.31402916 -0.47994670 0.62317634 0.30188358 0.53998214 -0.15868042 0.16048272 -0.02530588 0.21509972 0.31181550 0.02153801 0.32950437 0.12045898 -0.04160296 -1.10192132 0.53560704 0.74831998 -0.18957025 0.81966430 -0.66160458 0.74464929 -0.32768956 -0.47689065 0.16571255 -0.31504723 0.69134152 0.77257913 0.86585754 -0.65380418 -0.45186406 0.02885655 1.09507656 -0.09936100 0.96157908
0.25749257 0.33670256 -0.78864628 0.20680870 -0.47824842 0.46602234 -1.14300203 0.20120084 0.83066207 -0.01687071 0.14885336 -0.34328306 0.43387899 0.53748441 0.39419365 1.62796140 -0.32861316 0.80067158 0.32050568 2.66541433 -0.31379196 0.05796625 0.17833634 0.02084682 0.24985747 -0.01231712 -0.42427635 -0.15751949 -1.68191874 -0.46568853 0.09692781 -0.03670618 0.21384132 -0.58932984 0.06978346 -0.24575640 0.85288608 0.58276683 0.14328994 0.10484227 0.29536682 0.06260273 0.60289299 0.70420456 -0.49441943 0.41162744 0.19780116 0.18310001 -0.75808579 0.14058918 0.07847370 0.50114381 -0.13959263 0.06352510 -0.09366301 0.18915549 0.30247667 0.64955366 -0.38606751 -1.09655321 -0.55030078 1.39647102 0.30048400 -0.13139483
-2.23008275 -0.70484191 0.19524349 -0.98839569 1.12924111 0.98858809 -0.77891380 0.92619944 -2.17349052 0.86780149 2.43766642 0.55520928 -0.67367887 -0.85009861 -0.75888556 1.38892555 0.37928933 -1.47834218 -0.37428200 -0.04633090 -1.99896741 -1.77665603 -0.40303746 -0.35116288 -1.46467018 -0.82854670 1.70312953 -1.89955223 0.88126403 0.52538580 -22.42646027 1.29413867 -0.64051014 0.12235892 -1.79990506 -0.92910820 -0.41562068 -5.34598541 0.67900532 -0.75960594 -0.33807498 -0.58428258 -0.07580343 -0.69555062 -0.68606645 -1.09823155 -3.99243855 -2.33414054 -0.80905366 -0.63132834 -1.65886390 -0.63738865 -0.37073827 -1.89731407 -0.93237102 -1.43855202 -2.40475488 -1.01374340 0.31130007 -0.55371636 -3.64255786 -3.27699161 -0.11266277 0.52301699
-0.30835479 0.31129846 0.31930980 -0.24324143 0.41727316 0.02616541 1.17969465 -0.35686639 0.43745700 -0.33187553 0.91519505 0.24987929 -0.49387336 0.13243592 -0.11777510 -0.58566332 0.28423893 -0.80918783 1.08482265 -2.35832810 0.48299536 -0.67127597 0.75973201 0.11600484 -0.32715791 0.08945694 0.64297646 0.03276740 0.33732063 -0.22640935 -0.98323429 -0.21113357 0.03307292 -0.07495495 0.34221992 -0.11668430 0.43618739 -0.04160810 0.10126117 -0.16345531 0.80530608 -0.03721779 0.03945146 -0.24024607 0.96453458 0.16680533 1.21597254 -0.23276219 -0.18164349 1.30554163 0.41792351 0.12501188 0.35736623 -0.08544779 0.12989247 -0.20121473 -0.39581823 0.13085002 -0.08828828 -0.07362042 0.22178920 0.08422343 -0.27790371 1.06761825
0.41851696 0.24012163 0.12439105 0.27876168 0.27902776 -0.30053580 -0.04442995 0.44638151 0.60941100 0.10512190 0.50800771 -0.06560637 0.33072641 0.07388084 0.32224795 0.49935824 0.15192112 -0.61786330 0.21149129 -0.45805329 0.42469087 0.69212604 -0.73786855 0.37350702 0.55603415 -0.52000511 0.73513049 0.07167468 -0.82947487 0.11641087 -0.66534728 -0.50036037 0.22913523 0.12813149 0.81868261 -0.02858391 0.30149803 1.02643764 -0.21863331 -0.07270072 0.44035351 -0.05441682 0.44199315 0.00983064 0.65365428 0.33248740 -25.04631042 -0.15609801 -0.20487650 1.24904394 1.24544251 0.55386961 0.35750228 -0.06787138 0.02925902 0.24148524 0.02860845 0.26628727 -0.31240916 0.43619701 -0.18744560 0.18423136 0.29614639 0.98968905
-0.07273926 0.10652793 -0.60173970 -1.12947369 -1.08635688 0.04344718 0.49108890 1.44115913 1.73511004 -1.39703262 2.79197836 -1.05206513 -0.16145799 -0.47086281 -1.95263255 2.05425596 0.29654065 0.21142729 0.26178208 -1.16744184 -3.27129745 2.11507249 2.33786917 -0.35255504 0.09431370 1.88050020 0.38465053 -0.53170609 0.14942969 0.79817474 -3.01927805 -0.26445252 -1.17281199 2.59773016 -1.74319494 0.05990119 -1.03178346 2.71520090 -0.51281381 -1.12628615 -1.84067047 -1.02302420 -0.87668473 -2.72927403 0.76314622 -0.81366622 5.63908100 -3.06312752 -1.36461687 6.86934423 1.37650549 0.34920275 -0.31358993 0.87746656 0.71839464 -3.32438970 0.61559236 -1.14720416 -1.89869595 3.85541487 -2.01676846 -0.41058087 0.31310755 2.68022895
-3.45886040 -1.17445958 4.89566994 -0.38618258 10.30368996 -2.27088118 -0.87069130 1.54662168 0.90664655 1.74482894 0.48621860 -2.28580284 3.13015819 -1.94165587 -0.05771926 3.42312527 2.49576569 3.53689528 3.76343918 -0.32907543 -0.10591763 -0.52695191 1.22182226 3.25543976 -6.59155226 1.37683046 5.15345478 -1.42962229 1.92481208 1.34894812 -1.50984824 3.68929672 -0.92747748 1.28323209 -3.64027214 0.33638415 -1.61746347 0.04046667 -3.58391809 -1.94360590 -0.20278504 -4.22088003 -1.64156282 -1.18705142 3.12990570 -2.33263183 -0.04643769 -0.76904625 -2.26744556 1.34566319 -0.75796509 -1.11761892 4.63987350 7.59687853 0.94393677 -3.28254580 -0.63006175 -3.83408737 0.31876740 2.39420176 -0.37872699 -7.23305941 2.00701714 -1.40739954
0.62419212 0.56441724 -0.76725620 -1.19114041 -1.06996930 -0.04090063 0.75336915 -0.09926922 0.97955775 0.42178178 4.55448771 -1.25334060 -0.58450723 0.15135401 -4.77277851 -1.22227991 0.35850602 -0.61527532 1.26372123 -1.83821630 0.53538024 0.84961665 1.44773865 -4.32384634 -0.00192139 0.23729669 0.31979042 -0.59304374 0.27753571 0.52254790 -2.83604264 1.89913988 -0.41488481 2.03180981 0.36083138 -1.05597222 -0.73919088 0.26704064 -0.96218479 -0.33088410 -6.18366623 -0.93526512 -0.45945194 -2.26946712 0.59033692 -0.73698956 0.39196637 -1.49416339 -1.25363994 2.71662641 0.85751128 0.39110136 -0.15112071 0.71763229 -1.79122019 0.27967769 -5.01070118 -0.41364095 -0.44844690 2.09334540 -1.84362745 -0.36309046 2.72633719 2.33731651
0.07515945 -0.37100199 -0.82878149 -1.07672906 -1.36565113 0.31143177 -1.26310325 0.23198049 1.90771103 -0.82038409 3.63142490 -1.60756731 0.16337924 -0.34031004 -1.26953459 -0.73467970 -0.27969858 0.29355299 -0.93547791 0.50616580 -3.14678407 1.66640890 1.22312653 -0.54445791 -0.00275064 1.71966088 0.87539959 -0.65222901 0.75503910 0.59830540 -0.57509583 -3.41804242 -0.74248320 -1.54534364 -1.19951773 -0.18368301 -1.55943251 1.49511206 -1.21185482 -0.95054263 -8.72363091 -0.58221495 -0.62005299 -3.58822060 1.15073538 0.18214172 3.07442808 -4.63864517 -1.09596109 6.20734739 1.89103639 0.63189596 0.17018764 0.71895003 -3.80719852 -2.27197671 -4.13290215 -0.23728554 -0.84691721 4.17022419 -2.23816657 -0.33618239 0.25171995 2.22976279
0.56113046 0.84174800 -0.17190078 -1.33781636 0.30048239 -0.95634735 0.88335335 -1.36450446 0.34439290 3.83107448 0.38638335 1.33981729 0.04917222 -1.68434227 -3.46227622 0.61847675 1.29603314 0.18563403 -0.38653243 -1.52610087 -2.58828759 1.00736523 -0.23973289 0.13318959 -0.05720829 1.44025958 -0.30652121 -0.92172676 -0.58696342 0.71430391 -1.70914114 -2.98001933 -0.54425800 0.41790050 -1.66473329 1.54103637 -3.96259499 0.76855975 -0.73012722 -1.92201984 -2.92065740 -1.00518918 -0.94331509 -0.54033053 -0.07417110 -0.86752909 -0.90123612 -5.28608704 -2.85900974 0.17674045 1.18145227 0.34115130 -0.08219177 0.08340508 -1.53855693 1.84564543 -2.05769014 0.46763411 -1.27447629 1.38897097 -2.54483867 -0.95036930 0.52542216 0.51251769
-0.31441787 0.11902481 0.02531903 0.75406843 -0.07120080 -0.64060032 0.97762448 -1.95484960 0.19591436 -6.90713024 0.85718852 -0.08757691 0.64861566 -0.05835183 0.17207970 -1.41490829 -0.11220294 0.18420488 -0.30154991 2.91549206 0.54125959 1.53825045 -0.30618295 -0.44690287 -2.75248551 0.48138386 -1.76796663 0.39336839 0.08256879 -0.50562698 0.14698075 -0.41055721 -0.26750362 0.32552335 -0.38128582 0.00101766 -0.90495521 -2.44456196 -0.61940897 0.32800782 -0.33115193 -0.72465986 0.11302655 0.18864019 0.17310336 -0.22412719 -4.38406754 0.15942374 -0.27523223 1.47404552 0.20378910 -0.79572302 0.30786589 -0.01955622 0.03308738 -1.28159392 -1.03671658 0.08478602 -0.11855513 -0.43825901 -0.07681786 -0.60424536 0.35018593 0.55319244
-0.45788503 -2.59004450 -1.60034144 -0.85717821 0.46407577 1.74059939 0.20787242 0.66935915 0.06083164 1.36005020 -0.35309157 0.82588410 0.14893481 1.33395958 -1.96678734 0.14648703 -0.46899751 -0.13341503 0.68733716 -0.77298266 -2.33218193 0.10487082 0.02781728 -0.98651516 -0.99555981 1.53125656 0.21900080 -0.75591063 0.32606399 -1.13177431 -1.73827076 -0.16356491 -0.74836648 -2.38503647 -0.75053900 0.72835165 -1.72823238 0.37586173 -1.19129717 -1.95543253 -1.51518345 -1.89227068 -1.18841100 -0.61285049 0.04626323 -0.85539025 2.80340385 -6.09737015 -2.51707745 1.27101111 0.60359895 0.23658380 0.64297289 -0.05301354 -0.57093894 -0.79783010 -3.04883552 -1.19530809 -1.08064699 -0.89710277 -2.68760180 -1.54917753 0.65288848 -2.43378472
0.29134485 -0.03338024 -0.95990175 -1.83971083 -0.09576514 -0.08183610 0.02777591 0.38015914 2.48255277 -2.31068277 4.00022554 -1.32600892 -0.04778822 -0.25936297 -1.93623090 0.10267652 0.70873719 0.64015889 -0.00298311 4.32905054 -1.21359169 2.11228943 0.94146597 -1.04807198 0.29827499 1.14276922 -1.48753297 -0.60891658 -0.06994367 1.01440108 -2.01276302 -2.12016153 -1.19823170 -0.44257182 -1.76352000 0.04366994 -1.51110876 1.60289919 0.04194371 -1.25553274 -5.80951405 -1.33423853 -0.78200561 -3.56239986 1.04444551 -0.68854147 5.43268776 -5.46267986 -1.59675944 7.32758713 1.46409285 1.01258874 0.06481756 0.97327244 -0.92079526 -0.50342178 -3.11808991 -0.34404221 -1.17676628 3.85189319 -3.33190322 0.00162147 0.40902206 2.50507307
0.35759926 0.04390482 1.16282535 0.97831064 0.60816479 0.05469903 0.64809209 0.43084645 -0.82806784 -0.82222039 -1.02545428 0.37931135 0.04438513 0.32476565 -0.37195000 0.22904731 -0.02221885 -0.22791448 0.09579001 2.27985477 0.60244864 -0.03692015 0.04605404 0.15620933 -0.92531401 -0.40988159 -0.05687040 0.53524148 0.20339146 -0.09779292 -0.48163128 -0.14627616 0.21773700 -0.25759462 0.43658766 0.25610685 0.65503031 0.38038185 0.13604540 0.36726445 0.84682590 0.14322536 0.53898972 0.51937574 0.11633264 0.51619822 -0.93748659 0.25126797 -0.59138256 0.41290128 -0.77747744 -1.29094338 0.03754559 -0.34611741 0.40766290 0.02818781 0.45902199 0.25415891 0.16001329 -0.99290818 0.02701319 0.20326592 -0.10180437 0.61481464
0.49379343 0.23608370 -0.83034950 -1.27000749 -1.60141623 -0.26445574 -0.12357845 1.34339452 0.63297880 0.04604947 3.29492068 -0.94001818 -0.57456708 -0.52227962 -1.08320796 -0.83647031 -0.33880323 -0.50557703 0.46910834 -1.35154033 -2.52447939 1.93598211 3.65748882 -0.65877843 0.15069249 0.87488931 1.02020907 -0.61540538 0.57211649 0.86677426 -4.53349209 -2.07252026 -1.00356233 2.77854633 -1.70103407 0.63498771 -1.36436820 3.07407737 -1.36284137 -1.29252160 -2.50559354 -0.57255816 -0.89897418 -2.40438294 0.61828178 -0.92398584 2.15116048 -4.34320164 -1.02538705 6.68869972 1.70174742 0.82971579 0.17250520 0.75915009 3.45393229 -6.11287832 2.23544526 -0.60632646 -1.75230169 2.89688802 -5.66607189 -0.04156967 0.39922485 3.15961051
-2.27662992 -1.86535919 4.00694084 0.21071044 6.94429445 -1.89520693 -6.49023533 1.03330648 0.76608342 1.12627470 0.26386192 -1.42061508 1.40959466 -1.25359845 0.00366112 2.60746026 1.75215757 2.22441483 2.65972948 -1.31026113 0.17648700 -0.56992841 0.33424738 2.21850061 -5.02131128 1.31536520 3.49410200 -0.88600147 0.30758023 0.95123082 -1.34419954 2.52498388 -0.83345091 1.06807685 -2.60942554 1.41454947 -1.49964452 -0.06949675 -2.06463838 -1.12773728 -0.10502104 -2.69649434 -0.63089842 -0.56162494 1.81776190 -1.36514044 -0.24853443 -0.76539892 -1.64879858 1.35088682 -0.97391325 -0.23355806 3.17125487 4.34254122 0.71792650 -1.86703861 -0.82460999 -3.10048246 0.29782355 1.33811367 -0.25640419 -5.12134886 1.28630793 -0.93819940
-0.17162490 -0.10530427 -0.93886858 -1.23200250 -0.37598413 0.39180887 0.55241412 0.73778188 2.30639100 0.69355333 2.52917767 -1.49840736 0.17705767 -0.79591936 -3.58671927 0.79537368 1.16221166 1.02417588 -1.14498520 0.73159927 -1.76607215 1.49195981 1.68131793 0.48310903 -0.14710078 2.13544798 2.01163578 -0.70026612 -0.24727540 1.01093566 -1.91677451 -2.59275532 -1.18214667 0.17968214 -1.22374368 -0.09014877 -0.98912883 2.70920920 0.47112435 -1.22548676 -5.24570751 -1.21712351 -1.04328907 -3.74345183 1.08367991 -0.70864469 5.12259102 -2.65169477 -1.52928555 5.95122671 2.06907606 0.63547927 -0.01889383 0.87895870 -2.02895498 -2.11511803 0.24399200 -0.26889366 -1.81583059 3.73322225 -2.92644453 -0.42452890 0.51279980 3.18469405
0.34948003 0.68964118 0.01453684 -0.46107054 0.37318325 -0.12143905 -0.81150627 0.54645348 0.53686517 0.21287674 0.37238780 0.06877477 -0.05125227 -0.06355642 0.07767774 -0.16172050 0.42417234 -0.79696202 -0.11595936 -1.90992641 0.95892578 0.26598063 -0.24146645 0.20210220 0.44262171 0.57651329 1.09269476 0.18834259 -1.10530305 0.13413773 -0.14242691 0.07045547 0.23204990 0.09354089 0.73913145 -0.02934387 0.07083436 0.74146575 0.13982487 -0.08586280 -0.01601928 -0.19679546 0.16391140 -0.18821073 0.53760922 0.02978607 0.84381896 -0.33000979 0.50910705 0.88413185 1.22147465 -0.10191017 0.43777937 -0.20104100 -0.30898657 0.14923821 0.06268581 0.26895201 -0.08479959 1.32076514 -0.09413096 0.08667672 0.46884903 1.35436010
0.23597631 0.11303634 -0.18545723 -0.02678486 0.28273296 0.37289032 -0.14108169 1.09156907 -0.05173330 0.28449798 -0.07257739 0.02848780 -0.33304024 -0.44739860 0.45153233 0.47561002 0.22354640 -0.50742847 0.34062934 -1.88297904 -0.42143500 0.00887447 -0.19602825 0.25603035 0.30713138 0.01310703 0.14235632 0.11393172 -0.01074077 0.26588109 -1.60569024 0.13317446 -0.06925893 -1.37760258 0.07052654 -0.41427165 -0.03600796 0.85246068 0.15192856 -0.21487203 -0.05106499 -0.13918577 0.10028432 -0.69975346 0.01178106 -0.33346429 -0.47041216 -0.33428472 0.38709167 0.83475238 0.89154804 0.89040095 0.16555370 -0.12957926 -0.32084623 -0.70543545 -0.02206882 -0.04098009 -0.52146745 1.35512602 -0.04267050 -0.15655191 0.87510931 0.78594875
0.60189527 -4.39424038 0.00894171 0.04729600 1.56843638 -2.65503812 -1.44040918 0.03474832 -1.83370018 1.57818651 0.75329942 -1.77068019 0.88065362 -0.92652535 0.38462979 -1.80802011 1.19887853 -1.75218713 0.71759570 0.30073103 0.71899104 -4.92648029 3.18639374 0.38002610 -0.44791862 2.10713148 1.15053999 -0.83453619 2.32278824 1.54334700 -2.45095420 -1.62955165 0.71190435 -0.36987567 -0.10195700 1.07267690 -1.25936913 -2.24504042 -1.08244836 -0.41884211 -1.73395669 -3.79629302 -1.39753175 -0.85436577 0.78416044 -1.06046200 -5.23111629 -0.52228844 0.41024256 1.09099054 -0.42228901 -1.27064764 0.83785355 1.01536024 -0.90654671 -0.08715069 0.05475172 -2.44780755 0.67169553 1.39749444 0.32554597 -1.57227683 -0.73125654 -0.46737707
-0.10099011 -0.24655177 -0.27128917 -0.77337331 -0.30641791 0.13034597 0.24822815 0.51983571 1.51092589 0.78703427 1.87728119 -0.85997438 -0.31550765 -0.26685333 -2.64779186 -0.70769972 -0.55770892 0.67990565 0.61346877 -0.82859659 -4.06040716 1.76257765 1.73871946 -0.04339469 -0.00685281 1.93625093 2.34368467 -0.68500710 0.05320928 0.57607555 1.64730513 0.09951501 -0.53513139 -1.69084620 -1.51271105 0.11735792 -0.54974896 0.88006192 0.38697222 -0.79128969 -1.44053292 -0.68283749 -0.56127077 -2.83308959 1.22678888 0.06516733 3.98216295 -1.96994221 -1.87977588 5.91880274 0.96203858 0.00764085 -0.06977499 0.56694722 -1.09106851 -1.26717794 -2.72885370 -0.36958632 -0.96534866 2.53562188 -3.03130651 -0.41887829 0.83997029 0.93564957
0.21468116 0.17079788 -0.16351908 -0.08364259 0.23740737 0.30690485 -0.01043151 0.83554840 -0.06865736 0.47225997 0.23563141 -0.02124090 -0.27642539 -0.50753057 0.41145676 0.29041535 0.22902410 -0.38861978 0.28336424 -0.65213424 -0.49815303 0.48036006 -0.28239635 0.25600919 0.26231295 0.29403225 0.12059329 0.21904740 -0.21763101 0.20211226 -1.87074530 -0.44290793 -0.03121577 -1.32348132 0.05554505 -0.29558870 0.09490179 0.81846023 0.08464924 -0.04586526 -0.07783514 -0.11171907 0.18621573 -0.74715734 -0.07124020 -0.27203584 1.10460758 -0.38648564 0.46158031 0.98049271 0.85617411 0.62119704 0.16123858 -0.29988053 -0.37672833 0.48256674 -0.06069243 -0.07998355 -0.29765874 1.27043128 -0.19469337 -0.11539479 0.92984569 0.74824578
-0.64884263 -0.52720666 2.54334283 -0.04509287 1.92884445 -0.65914911 1.29051924 0.41667739 0.69777501 0.52100915 0.62799489 -1.06295204 2.04703999 -0.44461772 -0.45948473 0.10073231 1.39420366 0.08256489 1.93658340 -1.83040333 0.19786440 0.48986256 1.67908370 1.09222460 -0.26316798 -0.85817116 1.54263771 -0.83789122 2.25584531 -0.07983590 -0.05237438 -0.59503073 -0.24304433 -0.29582083 -0.35003141 1.35005903 -0.31293434 -0.01719767 -1.01604772 -0.73175007 -0.31685922 -1.68046606 -0.41442743 0.63424122 2.74848914 -0.99143952 0.47190744 -0.19428879 -0.80117446 -0.71330118 -0.51921344 -0.36799258 1.20623600 2.36704803 -0.31267259 -0.14066923 -0.55587047 -1.40682459 0.46151066 -0.42642638 -0.34631920 -2.52611780 -0.62453043 0.75919890
0.43519977 -0.45644978 -0.57109451 -1.01116252 -0.91505116 -0.26510406 -0.72011644 0.43405631 2.03249645 0.33328301 2.96356487 -1.34626615 -0.09784591 -0.41135049 -1.45343709 -2.07935929 0.62789524 0.17243296 0.42511562 -0.82843095 -4.35532761 2.21734619 0.88334876 -0.01633945 -0.59231883 0.89986897 1.47605884 -0.45851836 -2.10907888 0.55995941 -0.18929280 -0.75099856 -0.86485028 -1.41601086 -0.44747755 0.00532114 -1.21314716 1.68353796 -1.01140499 -0.89781660 -7.09532070 -0.46642503 -0.59848672 -2.88479090 0.76352388 -0.11688807 2.54602981 -3.19729447 -0.92313111 5.45241117 1.98737061 0.42737055 0.17158118 0.26429942 -2.98714447 -0.31847969 -3.15584779 -0.38373157 -0.66313416 2.90128183 -2.73548222 -0.25815442 0.41553816 2.20391989
0.42469630 -0.22922750 0.48901445 -0.06248157 -0.00621816 -0.65573704 1.27898431 -0.12174746 0.57988495 0.26591703 1.38902020 0.34399918 0.08873410 -0.53330922 -0.39149952 -0.19915771 0.74774814 -1.32465029 0.26339725 2.57952714 0.74542677 0.12023458 1.08695972 0.17712167 0.45624715 0.06892724 0.67280149 -0.15947169 1.16418135 0.76651853 0.16235940 -0.43323821 0.22561796 0.89245397 0.60657912 0.04251043 -0.78134388 0.22039257 -0.24740411 0.12889373 -0.31981397 -0.03489764 -0.11436521 0.27496985 1.01303005 0.14020169 0.01128408 -0.01951985 -0.02992484 1.99226069 1.52042437 0.91100717 0.62501180 -0.30860388 0.15343735 -0.04287331 0.01403010 0.31458691 -0.10311954 0.98089516 0.15958831 -0.84259748 0.06048457 1.55548000
-0.16441037 -0.76612037 -0.42456692 -1.56849051 1.06742752 0.59195971 0.96819872 -2.88583183 2.11057568 0.08116267 0.60010606 -0.85401392 -0.66473252 -1.36306000 -0.51302713 -0.07735775 0.85284251 -0.84667319 -0.31245643 -0.87650943 -0.55198544 0.63556236 1.47241712 -2.11527562 1.02780914 -1.92314029 1.86307490 -0.45998633 1.11618912 1.39465284 -0.77821147 0.17429188 -0.54243374 0.96207559 -0.68051451 -2.50455976 0.48729810 -2.86799002 -1.67845845 -0.51148367 -2.93444824 -0.29193929 -2.41103387 -0.38199523 -8.48219585 -0.25492716 0.06707267 0.23550701 -0.78215128 -0.48732963 -1.83386886 -0.55106342 -2.63712430 -0.55648202 -1.45347703 -1.07415950 0.16321377 -0.14353523 -0.72243524 -1.63464761 -0.40475321 -1.95822084 -1.75197303 0.12360777
0.35560745 -1.51091516 -0.22521745 -0.26101792 -0.55864578 -0.27666157 -1.44594884 0.31928766 1.51658881 -2.27465796 -1.59532273 -0.54256189 0.02951962 -0.02978918 -4.94093323 -0.32846501 -4.50531816 -0.39357460 0.54240584 0.42591304 -3.03839540 0.53002721 -3.08932590 -3.03102112 -0.71546143 1.60421157 0.12124451 -0.12205185 -1.25691807 0.42486119 2.61276865 0.19565733 -1.26933897 0.26162693 -1.46674085 -0.23228590 -2.03909969 0.64632666 1.19048011 -0.87773663 -4.22184992 -0.29409233 -0.71691978 -3.36980247 0.09215283 -0.31609291 -9.83459854 -3.94613910 -1.20467567 2.61913538 2.53669667 1.75767386 -0.00154031 0.58585709 -0.70573348 -0.68530089 0.05486598 -0.79575926 -1.40010095 1.75057161 -0.29904467 0.83344555 -0.09240226 -6.12991667
-0.18710674 0.05788394 -0.07457299 -0.04086230 0.02256454 0.21612616 1.06474519 -0.15298901 0.22381526 0.00950999 -0.37602592 0.36030832 -0.06290198 -0.16071680 -0.23201592 -0.34374085 0.38633999 -0.11848527 1.09955072 0.91080374 0.63079423 0.02790200 -0.83010799 -0.18246239 0.07278571 0.42711323 0.31510097 -0.09327388 0.91707140 -0.04814325 0.19446287 0.86030418 0.16486052 0.08112121 -0.10705955 -0.11292484 0.20752770 -0.75777394 -0.10988221 0.18090886 -0.40412408 -0.11096453 -0.11158773 0.37222701 0.22801670 0.13323326 -4.88331556 -0.17171547 0.01092697 -1.03809071 -0.03808825 0.96190202 0.37321174 0.28986412 -0.12646516 -0.17654052 0.17168830 0.27233341 0.08380505 -0.12266964 0.21385212 0.16984552 -0.31180912 0.23365912
0.98502642 0.14084266 -0.91216505 -0.91371691 0.13257521 0.58331722 0.89966792 -0.26804599 0.89658636 0.17781572 3.82996702 -0.99289495 0.05022613 -0.13647717 -6.72149944 -2.15694714 -0.41803157 -1.60706878 0.91940504 -0.53922755 -0.60429311 1.00113153 2.63245702 -3.73605657 0.66937220 2.16236043 -0.85893339 -0.68096685 -0.35768241 0.81990176 -2.46820188 -1.60277009 -0.46579581 -2.05740547 -1.08099294 -1.51981330 -1.17223382 -0.26021490 0.93769246 -0.65493745 -4.85174179 -1.14814472 -0.73499125 -2.26196718 0.32622835 -0.98866296 1.45597148 -4.48702717 -0.13998768 3.07017827 0.96253949 0.48398381 0.48633537 0.94651908 -3.68412161 -0.86574191 -6.55692482 -0.54112786 0.27390108 3.70381713 -2.12840605 -0.90255392 -0.02574488 2.90500522
0.32940516 -0.82623333 -0.44962966 -0.76196772 -0.13340057 0.29816794 0.46892253 -0.04429266 1.70648587 -0.93124640 0.60552728 -0.89025760 0.11864009 -0.12745069 -2.15429926 -0.72830784 0.91106337 -0.69726366 -0.14780636 -0.37880471 -1.42955244 1.06776750 4.31562662 -0.83144414 -0.60662580 1.60014057 0.16169481 -0.37829334 2.87739730 0.21904558 -2.40934181 -2.13541245 -0.76648748 0.19563423 -0.45973113 -0.25356409 -1.35872424 0.70720541 -0.60278350 -0.44296485 -7.62565899 -0.66725916 -0.00490295 -2.34308243 0.81187838 -0.39299199 1.62997961 -2.79165864 -1.00202739 3.27778339 2.03929281 0.63262171 0.16045676 0.41970176 -6.53699827 -1.73595786 -5.88155556 -0.30726516 -1.02563417 1.89496326 -1.98632896 0.14946464 -0.04075583 1.58150971
-0.19829039 -0.60951382 0.04040482 -1.72679591 -2.06890011 0.56594419 -0.60499126 0.29170349 0.97854990 -0.25223550 -1.32092190 -0.34377676 -2.79637003 -2.95674539 0.36489972 0.74910671 1.19543993 -3.29268336 1.62640405 -2.14346600 -1.01180577 -0.21028431 1.55046332 -0.91234326 -0.07251231 2.06756210 -0.17047633 -1.41842735 1.64503312 -0.00097352 -0.80381125 -1.87604058 -0.47582307 2.60219622 -2.10595822 -0.05594249 -1.36748874 -0.58172548 0.47811511 -0.45617005 -1.58840609 -0.32230136 -0.83107215 0.19639672 -0.27350023 -0.62298661 -5.75028753 -2.41181993 -1.72978079 -0.06615425 0.86224741 -0.75033075 -0.74155635 -1.72406483 -2.39874220 -0.14753202 -0.21132955 -0.08089352 -0.84029281 2.08062530 -0.55958724 -1.28330112 0.83403140 -0.87698698
0.36543101 -0.21059971 -0.62130308 -1.09641874 0.52948707 0.23638144 -0.46646884 0.71361119 2.51308799 1.95665288 4.05609846 -1.63774979 -0.02486763 -0.24898352 -2.86638999 0.02028433 -0.08210760 -1.47371066 -2.01053357 0.05507889 0.72379667 1.56981599 0.85209429 -0.01880876 -0.85025275 0.76115555 1.80724204 -0.90931183 0.77621013 0.95793056 0.41344437 -3.36221313 -0.90117687 -0.20998821 -0.24105707 -0.10328640 -1.42563748 1.58877659 -1.32410121 -1.47321069 -6.57159472 -0.72747374 -1.40180981 -1.70283020 0.84853131 -0.25832978 4.14167118 -2.19704604 -0.60208130 3.87454581 1.97156143 0.69275391 0.75667602 0.67152554 -4.12592411 -2.42967987 -5.29702854 -0.94372517 0.31264749 3.46708250 -1.00545752 -0.72419149 0.56003052 2.39966226
-2.70419836 -0.61591500 4.16049004 -0.10126483 7.44517469 -2.30065346 2.66338062 0.86297679 0.93631768 1.76818526 0.26586965 -1.98301208 2.05312014 -1.23776162 -0.06122785 3.33742952 1.89229667 2.05028987 3.16694713 -2.17355466 0.34853578 -2.49263978 -0.27481827 2.55020165 -6.88651562 2.68595266 4.21880674 -2.02747107 2.18063927 0.85160601 -1.84370589 3.41343188 -0.90950376 1.23990953 -3.78174400 0.65667456 -1.55589354 -0.22266406 -2.36034274 -1.58765912 -0.08942588 -2.50170875 -0.68748236 -0.70519519 1.99172771 -1.67783189 -0.79549569 -0.98288107 -1.75966954 1.07940984 -1.36326456 0.27824730 3.70294523 6.53122807 0.80072922 -1.82553399 -1.05255961 -3.91459036 0.20904662 1.65879238 -0.17011270 -6.03236055 1.59974444 -0.96002376
-0.55932415 -0.52334535 -0.69261765 -0.68072641 0.83925211 -0.63798702 -1.22930694 -1.12426138 1.15179741 -1.04863346 0.19710045 -0.29590142 -1.72175622 -0.27642515 -1.44863057 -1.75054932 0.05034235 0.35723490 -1.63784504 0.13333276 -1.21844971 -0.26338190 -1.14855790 -0.65381426 -0.71753561 1.55585957 0.78657788 0.09745174 -1.19995189 -1.57242799 0.16732733 -0.06250981 1.10026252 -1.08353114 -0.54048675 0.57374632 -1.72913229 -2.41680121 -0.75558323 -0.80162418 -1.23842359 -0.76554877 -1.39923882 -1.63429093 1.66016936 -2.13078594 -1.47577870 -1.86570990 -0.43363154 0.70566696 -0.76028115 -1.18601000 -0.32787624 -1.23851573 -0.64249742 0.57677251 -0.70994562 -1.27496982 0.15624009 -1.12249196 -0.49208871 -0.64552963 -1.49941373 -1.88970709
64 8
-0.46076766 -1.47890496 2.38182068 -0.69298708 0.91277671 0.13034676 3.55337644 3.88919735 0.79218447 3.73902273 0.12509775 -1.35383391 -0.77633929 -0.42934439 -2.12153125 6.55463076 0.07088590 0.47851500 3.70259428 0.17795327 -2.47497034 -1.80986559 5.62540054 1.99932778 -2.02027202 0.45968750 0.28387767 -0.20972946 5.47697020 7.49715233 0.29752114 -0.71828175 0.07752258 0.45547831 -0.41285452 0.26508555 -3.56954432 -9.83099556 -0.59222084 -0.81774473 0.77127755 -0.12610294 1.01319110 5.71145821 0.47978172 -1.36610091 5.77866745 -1.50550246 -0.66407955 0.38083351 3.65047622 -1.17395020 -0.42750126 -2.48801923 -4.37962723 1.06877363 -3.85425019 -2.35867453 0.62839663 -4.96634674 -1.14030814 0.68590605 3.13394213 -7.32398891
-0.71887451 -1.39089262 2.39090753 -0.57151222 0.93118072 3.32966471 2.98170853 4.53034306 0.63811541 4.06463146 0.09218455 -5.32413387 2.76619744 -0.39703241 -4.96867371 8.38763618 -0.07980186 0.38173676 3.20940542 0.16099170 -0.36599427 -3.57764673 5.16032600 -0.73182940 -1.70527613 0.46055847 0.28863636 -0.21033135 6.86014700 7.35564852 0.27631757 -0.68086374 0.01272252 -7.10784054 -0.43065473 0.50899470 -0.29443789 -9.90025330 -7.19974184 -0.06321105 -0.31980863 -0.11164995 1.58729970 6.69197321 0.41345716 0.09068941 6.76935291 -6.16303062 -0.64828628 0.33589521 2.42468858 0.34248790 -0.36984676 -2.47730470 0.07896286 1.03418362 -1.91140711 -12.19500637 0.66233689 -0.24011362 -3.81841087 1.37369144 2.36657524 -7.54352856
-0.09979802 -1.52602971 2.16801858 -0.79017061 0.83157998 1.67248988 3.80970263 4.45383263 0.99649566 2.18034124 0.12498866 2.17736173 -7.88246012 -0.43790624 0.04857266 5.85642147 -0.05200433 0.55587143 3.21679664 0.18622427 -3.34746051 -3.24871922 5.21641302 2.49236441 -0.81125236 0.36220235 0.26152778 -0.19316997 -0.66998136 8.74579525 0.25639075 -0.73661137 0.18673609 1.50402367 -0.34624997 -0.16950163 -1.29973376 -10.26263714 -0.16765521 -7.97645521 -0.20110442 -0.10760938 -2.35178423 5.03798723 0.61178905 0.02854595 4.87404251 0.60586971 -0.65836138 0.33635524 2.97141957 -2.20407629 -0.39710769 -2.19791889 -2.92574739 1.09895492 0.12772164 -0.94873321 0.51929939 0.09490154 -0.03022266 3.49060130 8.19898415 -7.32163477
0.01808144 -1.51620555 2.42409420 -0.77235812 0.87390196 3.18981791 3.74184155 -0.36560979 1.16341376 3.89080763 0.05342675 -0.13609008 -1.43645990 -0.35892600 -0.10381240 7.43672419 -0.10977448 0.49089938 10.23928642 0.10827523 -0.41168892 0.14328194 5.87174368 6.52362537 -1.42869961 0.22401130 0.27551696 -0.21184589 2.09522772 7.38443661 0.23138277 -0.73678178 0.29134640 -1.49894261 -0.34454963 -0.58848131 -7.86658669 -9.93374634 0.05615247 -0.14239658 -5.16150761 -0.10980485 -2.97661138 7.91748810 0.75971144 -12.59883690 6.05678558 -6.25630522 -0.58469993 0.25353578 2.35431314 -2.61792994 -0.29148874 -2.51668358 0.14927217 1.11047506 -4.67934608 0.05198099 0.43739018 -0.06872524 0.83555102 1.90029085 0.67037112 -7.52512932
-0.50668615 -1.54552460 2.34263873 -0.72419298 0.96921372 2.65454912 3.17044568 3.82241774 0.82359612 2.90379286 0.15048464 -0.81686437 -1.79261899 -0.55260724 -2.16253185 7.45903873 -0.06997277 0.53598076 4.24031544 0.24665049 -2.44601107 -1.99649179 5.63943577 2.97452402 1.29994094 0.53966773 0.24488959 -0.23876068 3.82153296 7.64636087 0.27020979 -0.75428087 0.14299563 -16.12766838 -0.38741779 0.22213885 -2.27992821 -9.85627365 -1.69514978 -2.04089904 -3.04083419 -0.17508890 3.66720796 5.66364050 0.43133545 -1.82997394 5.62230015 -2.39741468 -0.68654901 0.28700346 4.24989367 -1.60998273 -0.34281981 -2.40700769 -3.10353899 1.15557849 -1.29978871 -3.18604922 0.55745971 -2.03938603 -1.17925239 1.50690055 3.67192769 -7.38531017
-0.42069829 -1.56138396 2.60321236 -0.79504067 0.93873620 0.64432514 3.13885617 3.32749677 0.82809299 4.23328781 0.15276740 -1.49461210 -1.20030653 -0.50280994 -2.25945020 7.76367950 0.09489912 0.54789037 4.18900776 0.21717551 -3.09481835 -1.94270968 6.11980581 3.01922774 0.57919574 0.52378058 0.26796061 -0.20718881 5.20573378 7.64009905 0.27638537 -0.75885797 0.06796346 -0.23131728 -0.40220740 0.28789285 -3.28771996 -10.02109051 -0.68745869 -0.60894984 0.38764578 -0.12373662 -0.64259839 5.82277584 0.47129443 -1.77310932 5.40193272 -1.63615882 -0.69598538 0.39181197 4.21660995 -1.38014674 -0.46587965 -2.66697741 -4.10175991 1.11861420 -0.94725066 -3.53421736 0.62631983 -4.71858358 -0.70897925 2.74778819 3.22381115 -7.46117401
-0.60284436 -1.52094412 2.32322168 -0.65732282 0.99420285 2.82448053 2.85977983 5.20748234 0.81937051 3.48911357 0.15561622 -0.39485687 -1.56983483 -0.58011037 -0.18242043 6.09487200 -0.00041293 0.48745760 4.30066824 0.25905752 -3.62313652 -2.73902202 5.59277296 3.10570002 0.46020424 0.49226397 0.23361227 -0.24724807 1.24255204 6.91137600 0.24271360 -0.75038713 0.19787247 0.36011517 -0.33959526 0.10845015 -2.39302921 -9.19000340 -3.24568558 -0.62418669 -2.53315949 -0.17593655 4.81840324 6.24860239 0.44270846 -2.28620601 5.65591240 -2.75142646 -0.62889326 0.24150798 3.06827736 -1.41179335 -0.29507211 -2.35103941 -3.89119983 1.18670380 -1.44946873 -1.23700106 0.52164632 -0.33651975 -1.12582874 2.41723585 3.82694626 -7.16850567
-0.37524506 -1.51571393 2.23318624 -0.76955390 0.87538898 -0.35867408 3.55262828 4.34847879 0.77386075 2.82507372 0.13949075 -0.93990272 -3.17148519 -0.49602994 -4.21921158 7.38153839 -0.00193202 0.57986653 3.48505902 0.23353301 -1.68177044 -2.07700729 5.83780289 1.13144851 -0.11143194 0.52893764 0.25494707 -0.19264413 5.74719524 7.46608162 0.27469417 -0.73036522 0.05011548 -9.57985497 -0.40303081 0.36692226 -1.45750093 -9.66336632 -0.10073614 -4.35162878 3.97343040 -0.11997073 -4.04405260 5.71177197 0.42454672 -1.09766912 5.13713598 -2.13165593 -0.73784775 0.38220164 4.15075541 -1.98745787 -0.42685866 -2.29384184 -1.50462985 1.07958090 -1.16725385 -2.20987487 0.61485535 -3.38511491 -0.62273526 2.20555210 4.63776827 -7.08798075
0.58839142 0.70723873 0.89846522 0.88427693 0.93828380 0.41859567 1.38917553 0.77237248
